digraph Tree {
node [shape=box, style="filled, rounded", color="black", fontname=helvetica] ;
edge [fontname=helvetica] ;
0 [label="expenses <= 15601.5\nentropy = 0.546\nsamples = 127\nvalue = [111, 16]\nclass = y[0]", fillcolor="#e58139da"] ;
1 [label="entropy = 0.0\nsamples = 58\nvalue = [58, 0]\nclass = y[0]", fillcolor="#e58139ff"] ;
0 -> 1 [labeldistance=2.5, labelangle=45, headlabel="True"] ;
2 [label="perc_to_poi <= 0.166\nentropy = 0.781\nsamples = 69\nvalue = [53, 16]\nclass = y[0]", fillcolor="#e58139b2"] ;
0 -> 2 [labeldistance=2.5, labelangle=-45, headlabel="False"] ;
3 [label="entropy = 0.433\nsamples = 45\nvalue = [41, 4]\nclass = y[0]", fillcolor="#e58139e6"] ;
2 -> 3 ;
4 [label="entropy = 1.0\nsamples = 24\nvalue = [12, 12]\nclass = y[0]", fillcolor="#e5813900"] ;
2 -> 4 ;
}